Language model created by QuickLM on Sat Nov 23 13:57:47 EST 2013
Copyright (c) 1996-2010 Carnegie Mellon University and Alexander I. Rudnicky

The model is in standard ARPA format, designed by Doug Paul while he was at MITRE.

The code that was used to produce this language model is available in Open Source.
Please visit http://www.speech.cs.cmu.edu/tools/ for more information

The (fixed) discount mass is 0.5. The backoffs are computed using the ratio method.
This model based on a corpus of 12 sentences and 17 words

\data\
ngram 1=17
ngram 2=27
ngram 3=25

\1-grams:
-0.9120 </s> -0.3010
-0.9120 <s> -0.2443
-1.9912 BACK -0.2443
-1.9912 BACKWARD -0.2443
-1.9912 BURGUNDY -0.2443
-1.9912 FORWARD -0.2443
-1.9912 FULL -0.2921
-1.9912 HALF -0.2921
-1.9912 HALT -0.2443
-1.9912 LEFT -0.2443
-1.9912 OF -0.2966
-1.9912 RIGHT -0.2443
-1.6902 SPEED -0.2443
-1.9912 SPIN -0.2443
-1.9912 STOP -0.2443
-0.9912 TURTLEBOT -0.1963
-1.9912 UNIVERSITY -0.2966

\2-grams:
-1.3802 <s> HALT 0.0000
-0.3802 <s> TURTLEBOT 0.0000
-1.3802 <s> UNIVERSITY 0.0000
-0.3010 BACK </s> -0.3010
-0.3010 BACKWARD </s> -0.3010
-0.3010 BURGUNDY </s> -0.3010
-0.3010 FORWARD </s> -0.3010
-0.3010 FULL SPEED 0.0000
-0.3010 HALF SPEED 0.0000
-0.3010 HALT </s> -0.3010
-0.3010 LEFT </s> -0.3010
-0.3010 OF BURGUNDY 0.0000
-0.3010 RIGHT </s> -0.3010
-0.3010 SPEED </s> -0.3010
-0.3010 SPIN </s> -0.3010
-0.3010 STOP </s> -0.3010
-1.3010 TURTLEBOT </s> -0.3010
-1.3010 TURTLEBOT BACK 0.0000
-1.3010 TURTLEBOT BACKWARD 0.0000
-1.3010 TURTLEBOT FORWARD 0.0000
-1.3010 TURTLEBOT FULL 0.0000
-1.3010 TURTLEBOT HALF 0.0000
-1.3010 TURTLEBOT LEFT 0.0000
-1.3010 TURTLEBOT RIGHT 0.0000
-1.3010 TURTLEBOT SPIN 0.0000
-1.3010 TURTLEBOT STOP 0.0000
-0.3010 UNIVERSITY OF 0.0000

\3-grams:
-0.3010 <s> HALT </s>
-1.3010 <s> TURTLEBOT </s>
-1.3010 <s> TURTLEBOT BACK
-1.3010 <s> TURTLEBOT BACKWARD
-1.3010 <s> TURTLEBOT FORWARD
-1.3010 <s> TURTLEBOT FULL
-1.3010 <s> TURTLEBOT HALF
-1.3010 <s> TURTLEBOT LEFT
-1.3010 <s> TURTLEBOT RIGHT
-1.3010 <s> TURTLEBOT SPIN
-1.3010 <s> TURTLEBOT STOP
-0.3010 <s> UNIVERSITY OF
-0.3010 FULL SPEED </s>
-0.3010 HALF SPEED </s>
-0.3010 OF BURGUNDY </s>
-0.3010 TURTLEBOT BACK </s>
-0.3010 TURTLEBOT BACKWARD </s>
-0.3010 TURTLEBOT FORWARD </s>
-0.3010 TURTLEBOT FULL SPEED
-0.3010 TURTLEBOT HALF SPEED
-0.3010 TURTLEBOT LEFT </s>
-0.3010 TURTLEBOT RIGHT </s>
-0.3010 TURTLEBOT SPIN </s>
-0.3010 TURTLEBOT STOP </s>
-0.3010 UNIVERSITY OF BURGUNDY

\end\
